 {
     "metadata": {
         "modelName": "Thompson microphysics",
         "modelAuthor": "Inference Engine",
         "compilationDate": "20240123",
         "activationFunction": "sigmoid",
         "usingSkipConnections": false
     },
      "hidden_layers": [
          [
              {
                 "weights": [0.969018638,0.154175125E-1,0.392123088E-1,-0.496157818E-1,0.369144715E-1,0.467298292E-1,-0.435181446E-1],
                  "bias": -0.329680890E-1
              },
              {
                 "weights": [-0.200969949E-1,0.984585524,-0.124009978E-2,-0.489687324E-1,-0.107618524E-1,-0.313251652E-1,-0.308128987E-1],
                  "bias": 0.217585228E-1
              },
              {
                 "weights": [0.198161565E-1,0.389714092E-1,0.971226811,0.405948162E-1,0.779227237E-3,0.559179112E-3,-0.262866337E-1],
                  "bias": 0.301165134E-1
              },
              {
                 "weights": [0.416861363E-1,-0.293864217E-1,-0.442515984E-1,0.951277971,0.492163710E-1,-0.438609384E-1,0.194621421E-1],
                  "bias": -0.157046728E-1
              },
              {
                 "weights": [-0.428934470E-1,0.143193696E-1,0.362443626E-1,0.629217247E-3,0.999407172,0.179529320E-1,0.300168768E-1],
                  "bias": -0.460971519E-2
              },
              {
                 "weights": [-0.178070199E-1,-0.222180095E-1,-0.422353372E-1,0.940917060E-3,0.442699865E-1,0.975288510,-0.438941829E-1],
                  "bias": -0.477424935E-1
              },
              {
                 "weights": [0.146965506E-1,-0.703765359E-2,0.361456559E-2,-0.113896420E-1,0.427141562E-1,-0.121901426E-1,1.00206649],
                  "bias": 0.334307849E-1
              },
              {
                 "weights": [-0.183856115E-1,0.650186790E-2,0.169604793E-1,-0.290916394E-1,0.499343127E-1,0.747052766E-2,-0.980353914E-3],
                  "bias": -0.203711097E-3
              },
              {
                 "weights": [-0.216718540E-1,0.299646575E-1,0.607484672E-2,-0.495155342E-1,-0.105006648E-1,-0.108086970E-1,-0.107753119E-1],
                  "bias": -0.136535540E-1
              },
              {
                 "weights": [0.238258988E-1,-0.260421187E-1,0.135520231E-1,0.450427420E-1,0.166996885E-1,-0.198939629E-1,-0.857190043E-2],
                  "bias": -0.208671819E-1
              },
              {
                 "weights": [0.245186519E-1,-0.238920376E-2,0.360185616E-1,-0.398124345E-1,-0.486056060E-1,0.448565446E-1,-0.489642993E-1],
                  "bias": -0.489185192E-1
              },
              {
                 "weights": [-0.231892914E-1,0.458855070E-1,-0.363253206E-1,-0.355792157E-1,-0.387067720E-1,-0.354453810E-1,0.182391331E-1],
                  "bias": -0.868392270E-2
              },
              {
                 "weights": [0.218232740E-1,0.251074471E-1,-0.210286360E-1,-0.621859799E-3,0.257928222E-1,-0.600533606E-2,0.271524694E-1],
                  "bias": -0.225213543E-1
              },
              {
                 "weights": [-0.308819525E-1,0.207373071E-1,0.374942832E-2,-0.107670752E-1,-0.847739913E-2,0.257121529E-1,-0.295686685E-1],
                  "bias": 0.889736786E-2
              },
              {
                 "weights": [-0.348689631E-1,-0.254319329E-1,0.310772210E-1,0.351903737E-1,0.879066298E-3,-0.251620095E-1,0.138133531E-1],
                  "bias": -0.131841460E-1
              },
              {
                 "weights": [0.492670089E-1,0.471470729E-1,0.399801955E-1,-0.212387391E-2,0.167370718E-1,0.429863296E-1,0.180337317E-1],
                  "bias": -0.319666676E-1
              },
              {
                 "weights": [-0.491455607E-1,0.330375172E-1,-0.184024237E-1,0.311787091E-1,0.387972314E-2,0.590353739E-2,0.258868765E-1],
                  "bias": -0.416678749E-1
              },
              {
                 "weights": [0.106637236E-1,-0.405599549E-1,-0.127842817E-1,0.110517694E-1,0.475614704E-1,-0.169006661E-1,0.428145640E-1],
                  "bias": 0.441619158E-1
              },
              {
                 "weights": [0.470724516E-1,0.212459061E-1,-0.280109867E-1,-0.299774250E-2,-0.416686933E-3,0.148249734E-1,-0.161480885E-1],
                  "bias": -0.420149527E-1
              },
              {
                 "weights": [-0.198778491E-1,0.127330795E-1,0.500907144E-2,0.414740033E-1,0.151660731E-1,-0.188586637E-1,-0.406644382E-1],
                  "bias": 0.408163741E-1
              },
              {
                 "weights": [-0.418139510E-1,0.424315147E-1,-0.406061672E-1,0.456048474E-1,-0.288262181E-1,0.483894646E-1,-0.215929151E-1],
                  "bias": -0.265067015E-1
              },
              {
                 "weights": [0.360245071E-1,0.150488624E-1,0.451486260E-1,-0.454914942E-1,-0.879717153E-2,-0.249033999E-1,0.159774150E-2],
                  "bias": -0.389342979E-1
              },
              {
                 "weights": [-0.450637862E-1,-0.382304266E-1,0.284925755E-1,0.403635291E-3,-0.106520802E-1,0.164882001E-1,-0.115991421E-1],
                  "bias": -0.211676881E-1
              },
              {
                 "weights": [-0.266673230E-1,0.294833407E-1,-0.433254503E-1,-0.182033647E-1,0.354046598E-1,-0.381448083E-1,0.396761373E-1],
                  "bias": 0.126216728E-1
              },
              {
                 "weights": [-0.205051191E-1,-0.192435645E-1,-0.454727523E-1,0.241593737E-1,-0.206011347E-1,0.148140953E-2,-0.120051801E-1],
                  "bias": -0.484544151E-1
              },
              {
                 "weights": [-0.147634475E-1,-0.319632217E-1,-0.235100128E-1,-0.165221877E-1,-0.257302318E-1,0.106616532E-1,-0.455006212E-1],
                  "bias": -0.322470092E-2
              },
              {
                 "weights": [0.248940289E-1,0.298465993E-1,-0.238634627E-1,-0.902049523E-2,0.344278440E-1,0.136856223E-1,0.122362524E-1],
                  "bias": -0.117672533E-1
              },
              {
                 "weights": [0.161404777E-1,-0.255198460E-1,0.399084613E-1,0.345733613E-1,-0.482317694E-1,0.469936654E-1,0.136825452E-1],
                  "bias": -0.408525206E-2
              },
              {
                 "weights": [-0.402318574E-1,0.302973227E-2,0.490687555E-2,-0.376727358E-1,0.270536612E-2,0.417293794E-2,-0.211899504E-1],
                  "bias": -0.435866155E-1
              },
              {
                 "weights": [0.486126356E-2,-0.217086170E-1,0.425270433E-2,0.133070378E-1,-0.464934260E-1,0.216053370E-1,-0.458355248E-2],
                  "bias": 0.438028015E-1
              },
              {
                 "weights": [-0.386997052E-1,-0.302603617E-1,-0.608419394E-2,-0.172148682E-1,0.406332128E-1,-0.383696817E-1,0.255992003E-1],
                  "bias": -0.397669673E-1
              },
              {
                 "weights": [0.265520462E-2,0.298200585E-1,-0.137047097E-1,0.463373512E-1,0.301410048E-2,-0.375529528E-1,-0.976107083E-2],
                  "bias": 0.107768672E-1
              }
          ],
          [
              {
                 "weights": [0.996723056,0.280066468E-1,0.243345872E-1,-0.325687043E-1,0.331523567E-1,-0.345020406E-1,-0.351058394E-1,-0.186407026E-1,0.162008610E-1,0.235309713E-1,-0.428490192E-1,-0.188064657E-2,0.257074703E-1,-0.131743250E-2,-0.433984287E-1,-0.142769301E-1,0.697721867E-2,0.182814784E-1,-0.155324284E-1,-0.158484548E-2,0.300076995E-1,0.610342110E-2,0.175696407E-1,-0.325149335E-1,0.695833145E-2,0.178995598E-1,0.119088590E-1,-0.100172712E-1,-0.482081762E-2,0.362862088E-1,0.265393499E-1,-0.289166588E-1],
                  "bias": -0.161001924E-1
              },
              {
                 "weights": [-0.595954852E-2,1.03894126,-0.233785473E-1,0.311475918E-1,-0.498026200E-1,-0.315719843E-1,0.250933692E-2,-0.352027640E-1,0.414881147E-1,0.593166053E-2,0.127348024E-1,-0.272530299E-1,-0.358212888E-1,-0.240967162E-1,0.702226581E-2,-0.290302541E-1,0.106950672E-1,0.493142270E-1,0.246647149E-1,-0.260198191E-1,0.332958587E-1,-0.441089459E-1,0.868515205E-2,0.478666462E-1,0.113942251E-1,0.225366335E-1,-0.398806557E-1,0.436067469E-1,0.146387087E-2,-0.458255149E-1,-0.494812578E-1,0.854998548E-2],
                  "bias": 0.249686856E-1
              },
              {
                 "weights": [0.416047312E-1,0.359243117E-1,1.03171384,-0.300714653E-1,0.353683764E-2,0.372543149E-1,-0.541406777E-2,0.345550142E-1,0.154942283E-1,0.389787089E-2,-0.506409854E-1,0.172577351E-1,0.327988714E-1,0.144861005E-1,0.262945574E-1,-0.293488465E-1,0.420757793E-1,0.432480983E-1,-0.246863603E-2,0.439344533E-1,-0.706793228E-2,0.223165192E-1,-0.970224850E-2,-0.464575663E-1,-0.152710322E-1,0.432090508E-2,0.343360826E-1,-0.154451514E-1,0.262882002E-1,0.245321002E-1,0.318378620E-1,0.101738283E-2],
                  "bias": 0.197921060E-1
              },
              {
                 "weights": [-0.298557268E-2,-0.206100494E-1,0.145558864E-1,1.01477408,0.110040773E-1,-0.382329500E-2,0.333446413E-1,-0.129127624E-1,-0.385973193E-1,-0.211391617E-1,-0.432203487E-1,-0.443997094E-2,-0.139911957E-1,0.164909679E-1,-0.265798680E-1,0.447231270E-1,-0.298027825E-1,-0.539593622E-1,0.227500908E-1,0.151167717E-1,-0.327698588E-1,-0.155130923E-1,-0.445569865E-1,0.137159247E-1,-0.426927693E-1,0.219641402E-1,-0.811289251E-2,0.339060724E-1,-0.257403273E-1,0.273070205E-1,0.289205592E-1,-0.363291078E-2],
                  "bias": -0.446406454E-1
              },
              {
                 "weights": [0.479905754E-1,-0.162110792E-2,0.496471412E-1,-0.182252470E-1,0.988011777,-0.377060808E-1,0.903102264E-4,0.434402712E-1,-0.265648887E-1,0.194111355E-1,0.138583500E-1,-0.322086327E-1,-0.227948669E-1,0.482078753E-1,-0.378819779E-1,0.261249281E-1,-0.149760507E-1,0.392981665E-2,0.435017869E-1,-0.124068633E-1,0.187400337E-1,-0.199705269E-1,0.234421007E-1,0.471860915E-1,0.251648482E-1,0.436403565E-1,-0.250083208E-1,0.335184969E-1,0.425093658E-1,0.154180266E-1,0.286558475E-1,-0.122462250E-1],
                  "bias": 0.249352269E-1
              },
              {
                 "weights": [0.367951058E-1,0.332649313E-1,0.285354014E-1,-0.291967820E-1,-0.350214168E-1,1.02687538,-0.378206074E-1,0.245274547E-1,0.444730371E-1,0.300172903E-1,0.120104421E-1,-0.486401021E-1,0.689433515E-2,-0.363625661E-1,0.391447432E-1,-0.310288891E-1,0.316416584E-1,-0.406795479E-1,0.396245308E-1,0.260703471E-1,-0.665706862E-2,0.251027904E-1,-0.129512381E-1,-0.114600956E-1,0.480711274E-1,-0.154970726E-1,0.452197231E-1,0.499663167E-1,-0.350648463E-1,0.113340169E-1,0.834087003E-2,-0.457933433E-1],
                  "bias": -0.112636313E-1
              },
              {
                 "weights": [0.467512943E-1,-0.793528277E-2,-0.402519479E-1,0.325711444E-1,0.319765285E-1,-0.237977002E-1,1.03455079,0.268609915E-1,0.496772081E-1,0.503638573E-1,0.372290872E-1,-0.211850391E-2,-0.381059721E-1,-0.159817822E-1,-0.558401225E-2,-0.355354324E-1,-0.293631665E-1,-0.145314040E-2,-0.177219827E-1,-0.334858820E-1,-0.432108939E-1,-0.400905423E-1,-0.330304503E-1,0.865513738E-2,-0.117228627E-1,0.405478058E-2,0.352830812E-1,-0.297934897E-1,-0.480919071E-1,0.172871575E-1,0.781004375E-3,0.227760896E-1],
                  "bias": 0.215499513E-1
              },
              {
                 "weights": [0.166443940E-1,-0.209572855E-1,0.383561701E-1,0.402049311E-1,0.253457110E-2,-0.112263896E-1,-0.260463972E-1,1.04877102,-0.307215545E-1,-0.203605052E-1,-0.403123833E-1,-0.239630565E-1,0.340298675E-1,0.398347229E-1,0.252652653E-1,-0.163077482E-2,0.403792337E-1,-0.325604081E-1,-0.412189849E-1,-0.450180918E-1,-0.207836181E-1,-0.127656767E-1,-0.125435749E-1,-0.410103649E-1,0.413451018E-2,0.446971282E-1,0.469192490E-1,0.349642597E-1,-0.457607297E-3,-0.174344424E-1,0.363133885E-1,-0.377803929E-1],
                  "bias": -0.494441134E-3
              },
              {
                 "weights": [-0.109601952E-1,0.274972320E-1,-0.194928814E-1,0.150929508E-2,0.161250159E-1,0.229057129E-1,0.441306569E-1,0.101420339E-1,1.00411665,-0.192275867E-1,-0.429204628E-1,-0.237837005E-1,0.383317731E-1,-0.609815877E-3,0.159363765E-1,0.403231233E-1,-0.327482037E-1,-0.252644680E-1,0.889101252E-2,-0.319786817E-1,-0.472569428E-1,0.253805369E-1,-0.705646630E-2,-0.167136639E-1,0.323107652E-1,-0.314711146E-1,-0.359418504E-1,-0.392205967E-2,0.143618258E-1,-0.102793286E-1,-0.307159275E-1,0.350674167E-1],
                  "bias": 0.146065885E-1
              },
              {
                 "weights": [-0.566873699E-2,-0.158207957E-1,-0.200947952E-1,-0.244366340E-1,-0.209243391E-1,-0.136950808E-1,-0.271657687E-1,0.358572789E-1,-0.624128478E-2,1.03914702,0.414435193E-2,0.246480796E-1,0.246389490E-2,0.406240188E-1,0.173492599E-1,-0.361744054E-1,-0.253107771E-1,0.356048271E-1,-0.278788228E-1,0.372903720E-1,-0.556626997E-3,-0.111435326E-1,0.140923029E-1,-0.175678059E-1,0.980588794E-2,-0.454177856E-1,-0.189136161E-3,-0.214489549E-1,0.295911897E-1,0.237621386E-1,-0.260799797E-2,-0.654580910E-2],
                  "bias": 0.454971753E-1
              },
              {
                 "weights": [-0.332161551E-2,0.489202235E-2,0.236476734E-1,0.470633805E-1,-0.242524594E-1,0.222242866E-1,-0.477766094E-3,0.221067835E-1,0.250873305E-1,0.487469584E-1,0.979780555,0.463211238E-1,-0.378656648E-1,-0.523036299E-2,-0.428151265E-1,-0.434867144E-1,0.414847322E-1,-0.194294769E-1,0.171873551E-1,0.104635768E-1,-0.114748077E-1,-0.298749888E-2,0.259535555E-1,0.220798869E-1,0.497336127E-1,0.381086580E-1,-0.402793325E-1,0.253110435E-1,-0.351124406E-1,-0.503344135E-2,-0.172115443E-2,-0.356641971E-1],
                  "bias": 0.387680084E-1
              },
              {
                 "weights": [-0.418994464E-1,0.369562991E-1,-0.343506038E-1,0.102027981E-1,-0.209596753E-1,0.494570844E-1,-0.274513233E-1,-0.933221448E-2,0.428449698E-1,-0.176080093E-1,-0.273940377E-1,0.980683744,0.489603728E-1,-0.216222666E-1,-0.152374329E-1,0.464625023E-1,-0.990716461E-2,-0.309331417E-1,0.427339338E-1,-0.193504188E-1,0.112790463E-2,0.146864662E-1,0.236804839E-1,-0.438760780E-1,0.340982862E-1,0.510644820E-2,-0.201704446E-1,-0.760204811E-2,-0.314753726E-1,-0.120015405E-1,-0.415637791E-1,-0.165266427E-2],
                  "bias": -0.297608413E-1
              },
              {
                 "weights": [-0.236086342E-1,-0.372720510E-1,0.326644368E-1,-0.353892148E-1,-0.376946740E-1,0.455976054E-1,0.315546915E-1,-0.302783456E-1,0.316498503E-1,0.226124134E-1,-0.336356759E-1,0.502110459E-1,1.01446342,-0.231947144E-2,0.415609255E-1,0.374610163E-1,0.322612114E-1,0.311634177E-2,-0.479133986E-1,0.241317283E-1,0.127795581E-1,0.316490345E-1,-0.470500104E-1,-0.418820679E-1,0.149858911E-1,-0.400838479E-1,0.585078169E-2,-0.111107004E-2,-0.192723069E-1,0.286395941E-1,-0.381289460E-1,0.754833745E-3],
                  "bias": -0.371409766E-1
              },
              {
                 "weights": [-0.394975767E-1,0.941609684E-2,0.475334674E-1,0.496020447E-2,0.440952927E-2,-0.308386553E-1,-0.251765847E-1,-0.612190692E-2,0.810598303E-2,0.263052471E-1,-0.348101109E-1,-0.143857058E-1,-0.385930277E-1,0.988533080,0.280856318E-2,-0.142482277E-1,0.304547474E-1,0.199638549E-1,-0.403963700E-1,-0.356150195E-1,-0.120493732E-1,0.733306771E-2,0.431930162E-1,-0.485998951E-1,-0.272405837E-1,0.279047396E-1,-0.424197987E-1,0.986996107E-2,0.246400777E-1,0.227685422E-1,-0.590001838E-2,-0.551641360E-2],
                  "bias": -0.293201543E-1
              },
              {
                 "weights": [0.390820950E-1,0.358012952E-1,0.378813036E-1,0.263473932E-1,-0.126748625E-2,-0.454845428E-1,-0.130884182E-1,-0.261185151E-1,-0.109823300E-1,0.478295423E-1,0.493262261E-1,-0.756802084E-2,-0.339121148E-1,0.423838384E-1,0.977986157,-0.127932895E-1,0.483606048E-1,-0.112223094E-1,-0.895973016E-2,-0.157610998E-1,-0.255992189E-1,0.447616875E-1,0.341705158E-1,0.249735871E-2,0.993170403E-2,0.422127433E-1,0.322475918E-1,-0.113607012E-1,-0.335702114E-1,0.162960235E-1,0.178507101E-1,-0.361881815E-1],
                  "bias": -0.375703280E-2
              },
              {
                 "weights": [-0.227855910E-1,-0.327082002E-2,0.103236632E-1,-0.480597764E-1,0.277201086E-1,0.252830125E-1,0.274360906E-1,0.114804239E-2,-0.437049046E-1,0.319295712E-1,0.146495262E-1,-0.453819744E-1,0.370419398E-1,-0.289931428E-1,0.745702023E-2,1.01369655,0.453554466E-1,0.286108395E-2,0.378685705E-1,0.499701537E-1,0.411293991E-1,0.170108248E-1,0.938613806E-2,-0.374182649E-1,-0.202069469E-1,0.413214378E-1,0.391614661E-1,0.116310446E-1,-0.140634021E-1,-0.344220847E-1,0.164312609E-1,-0.388776399E-1],
                  "bias": 0.211278163E-1
              },
              {
                 "weights": [0.194652062E-1,-0.112789674E-1,0.113932658E-1,0.422167927E-1,0.443411842E-1,-0.496419184E-1,0.362800620E-1,0.179261491E-1,-0.111973695E-1,0.973759871E-2,0.338098630E-1,-0.268909894E-1,0.267622969E-2,-0.193337258E-1,-0.877648313E-2,-0.431671254E-1,1.00683081,0.126017500E-1,-0.177072838E-2,-0.475665294E-1,-0.450949185E-1,0.120382234E-1,0.351331830E-1,0.356670357E-1,0.172857828E-1,0.412989557E-1,-0.245657214E-2,0.454403926E-2,-0.461976342E-1,-0.416629836E-1,0.329255126E-1,-0.231307317E-1],
                  "bias": -0.354331844E-1
              },
              {
                 "weights": [0.325637870E-1,0.115524130E-1,-0.424525328E-1,0.526146311E-2,-0.296800472E-1,0.187772326E-1,-0.128067555E-1,-0.354824588E-1,-0.345652848E-1,-0.339771546E-1,0.920895673E-2,-0.426330343E-1,-0.272620451E-1,0.397312939E-1,0.455739647E-1,0.170677099E-1,-0.384801067E-1,0.958674252,0.363906403E-2,-0.288811810E-1,0.598546723E-2,-0.903332233E-2,0.545676239E-2,-0.459680185E-1,0.141747911E-1,-0.334766172E-1,0.135848187E-1,-0.307912380E-1,0.137968753E-1,-0.217211172E-1,-0.470356969E-2,-0.438500158E-1],
                  "bias": -0.383065566E-1
              },
              {
                 "weights": [-0.271931961E-1,0.323337317E-1,-0.961052440E-2,-0.134263281E-1,-0.289477203E-1,-0.176028523E-2,0.867400784E-2,0.466820486E-1,-0.470027179E-1,0.608458091E-2,-0.454964228E-1,-0.354875922E-1,0.260536876E-1,-0.328163505E-1,-0.200158805E-1,0.361460708E-1,-0.503694126E-2,0.155528327E-1,1.04252267,-0.434653945E-1,0.126714054E-1,-0.415560640E-1,-0.607884256E-2,-0.293962490E-1,0.524697732E-2,-0.406445796E-2,0.134414649E-1,-0.722667575E-2,0.579169253E-2,-0.345353298E-1,0.186723899E-1,0.570830656E-2],
                  "bias": 0.302470680E-1
              },
              {
                 "weights": [0.505286269E-1,-0.204651686E-2,-0.451367311E-1,0.131935561E-1,-0.393827781E-1,0.491434559E-1,-0.683891703E-3,0.398927368E-1,-0.200052913E-1,-0.141365379E-1,-0.939973514E-3,-0.194962937E-1,0.455702096E-1,0.222231168E-1,0.344181620E-1,0.269553671E-2,0.477519967E-1,0.104774497E-1,0.225117663E-2,0.993364394,-0.498831039E-2,-0.240026191E-1,-0.284239743E-1,-0.459118560E-2,-0.396835320E-1,0.262735654E-1,0.455400608E-1,-0.165376812E-1,-0.130174188E-1,-0.209084097E-1,0.492740050E-1,-0.227158349E-1],
                  "bias": 0.628202176E-2
              },
              {
                 "weights": [0.117590055E-1,0.309117604E-1,-0.236555040E-1,0.160885639E-1,0.415282771E-1,0.449959375E-1,-0.357124805E-1,0.486615021E-2,-0.210075397E-1,-0.433757193E-1,-0.346670789E-2,-0.106059490E-1,-0.390639789E-1,-0.811483059E-2,-0.216857623E-1,0.456378609E-1,-0.277849827E-1,-0.371332504E-1,0.349127688E-1,0.456400402E-2,1.04880118,0.446298085E-1,-0.209716521E-1,-0.200659353E-1,0.429676510E-1,0.342179276E-1,-0.489762612E-1,0.313316733E-1,0.358905457E-1,-0.149063219E-2,-0.418488048E-1,0.158471074E-1],
                  "bias": 0.339264721E-1
              },
              {
                 "weights": [0.329454057E-2,0.432690382E-1,-0.273353253E-1,0.241774749E-1,-0.404718444E-1,-0.295945834E-1,0.392504148E-1,-0.674928119E-2,-0.175143860E-2,0.249586180E-1,-0.115456963E-1,-0.279688891E-1,-0.147078524E-2,0.105848461E-1,-0.235167146E-1,-0.460914411E-1,-0.399705581E-1,0.225888062E-1,-0.476074740E-1,-0.429984275E-2,-0.373370461E-1,0.954713345,-0.126885166E-1,-0.364676751E-1,-0.306549147E-1,0.357767344E-1,0.315970853E-1,0.264320169E-1,0.258797649E-1,-0.226771198E-1,-0.138587439E-1,-0.226268042E-1],
                  "bias": 0.445930380E-2
              },
              {
                 "weights": [0.809407700E-2,0.964364596E-2,-0.266332142E-1,-0.401025973E-1,-0.729642343E-2,-0.164949484E-1,0.234634001E-1,0.498871058E-1,-0.251177754E-1,0.410436274E-3,-0.483881384E-1,-0.349283516E-1,0.109156985E-1,0.257646088E-1,0.275298357E-1,0.371282957E-1,0.196816828E-1,-0.930444617E-2,-0.814546272E-2,0.676014647E-2,0.142649626E-1,-0.475211963E-1,1.03111351,-0.311655495E-1,-0.181879830E-1,0.499566644E-1,0.994425267E-2,0.267080870E-1,0.342696011E-1,0.165602118E-1,0.189103335E-1,-0.493668485E-3],
                  "bias": -0.387904681E-1
              },
              {
                 "weights": [0.136483191E-1,-0.379759446E-1,-0.354600623E-1,-0.249509308E-1,-0.243311562E-1,0.408256687E-1,0.450466610E-1,-0.340095088E-1,-0.242980383E-1,0.242669377E-1,0.202156976E-1,-0.306541193E-1,-0.491612367E-1,0.245721228E-1,-0.216014404E-1,0.281440880E-3,0.177581869E-1,-0.193097945E-1,-0.454257950E-1,-0.224667098E-1,0.164943431E-1,0.309174974E-1,0.685114413E-2,0.953604996,0.350125320E-1,0.333282873E-1,-0.441043451E-1,0.192769673E-1,0.259265886E-2,-0.814742409E-3,-0.619277358E-2,0.230801310E-1],
                  "bias": 0.173881557E-1
              },
              {
                 "weights": [-0.414104313E-1,0.120700933E-1,0.251056962E-1,-0.806535012E-3,0.425695209E-2,-0.212277118E-1,-0.319524668E-1,-0.378916822E-1,-0.353000984E-1,0.189594217E-1,-0.161348078E-1,0.163393468E-1,-0.223207679E-1,-0.723445602E-2,0.215477347E-1,-0.739476457E-2,-0.418046974E-1,-0.197053943E-1,0.491620302E-1,0.496868752E-1,0.646025548E-2,0.499964878E-1,0.193677526E-1,0.366822109E-1,1.01052070,-0.301864389E-1,0.222939234E-1,-0.256808810E-1,0.451377220E-2,0.332417712E-1,-0.114215976E-1,0.979726017E-2],
                  "bias": 0.385781117E-1
              },
              {
                 "weights": [-0.147005888E-1,-0.156327598E-1,0.188063048E-1,0.351058133E-1,0.282623451E-1,-0.288670175E-1,-0.271018315E-1,0.357290567E-2,-0.240522120E-1,0.419154055E-1,-0.151502225E-2,0.197885334E-1,-0.254827756E-1,0.342015103E-1,0.261712563E-2,-0.268189106E-1,0.407385565E-1,-0.296984948E-1,-0.460879654E-1,0.428765975E-1,-0.487564728E-1,0.302652176E-1,-0.194819439E-1,0.235739760E-1,-0.321287587E-1,0.993684053,-0.181466118E-1,0.243587289E-1,-0.291931443E-1,-0.476907343E-1,0.495609492E-1,-0.171710216E-1],
                  "bias": 0.144986343E-1
              },
              {
                 "weights": [-0.411725454E-1,0.886244327E-2,-0.181264970E-1,-0.222897362E-1,0.353700891E-1,0.218019392E-1,0.455773175E-1,0.502473153E-1,-0.184363872E-1,-0.292615984E-1,-0.227371249E-1,-0.193985719E-1,-0.122046592E-1,0.329296812E-1,-0.255265571E-1,0.310815945E-1,0.208126963E-2,-0.256462842E-1,0.259212265E-2,0.444964767E-1,0.322591364E-1,0.156669412E-1,-0.229800176E-1,0.720721111E-2,0.146960923E-1,-0.175514072E-1,1.02149928,0.417669024E-2,-0.159079803E-2,0.284831915E-1,0.800614187E-3,-0.474827737E-1],
                  "bias": 0.312246047E-1
              },
              {
                 "weights": [-0.100049330E-2,0.169070307E-1,0.358960181E-1,-0.287307724E-1,0.235971399E-1,-0.133201228E-1,-0.201318525E-1,0.372821540E-1,-0.363449454E-1,0.128610595E-2,0.219586007E-1,-0.202713497E-1,-0.163079966E-1,0.291965455E-1,-0.162179228E-1,-0.264633670E-1,-0.161725525E-1,-0.506992219E-2,-0.410652421E-1,-0.346525549E-2,0.431717224E-1,0.350495763E-1,-0.422249101E-1,0.462891012E-1,-0.209736619E-1,-0.136955306E-1,0.200922471E-1,1.03855479,-0.489759780E-1,0.341300294E-1,0.435996838E-1,0.227905791E-1],
                  "bias": -0.321934037E-1
              },
              {
                 "weights": [0.148786362E-1,0.325922891E-1,-0.244687665E-1,-0.626660697E-2,-0.365610383E-1,-0.218893215E-1,0.238214042E-1,-0.461416133E-1,-0.112600215E-1,0.232515335E-1,-0.123682572E-1,0.368524417E-1,0.142785385E-1,-0.599636557E-2,-0.190458875E-1,0.225841291E-1,0.249260515E-1,0.341921533E-2,0.139800608E-1,-0.114878183E-1,0.283127595E-1,0.396675318E-1,0.338135399E-1,-0.349047557E-1,-0.481649637E-1,-0.155910999E-1,-0.189581439E-1,-0.157204340E-2,0.958681047,-0.365445167E-1,-0.259940140E-1,0.318282917E-1],
                  "bias": -0.212224778E-1
              },
              {
                 "weights": [-0.333596878E-1,-0.417108135E-2,-0.555976154E-2,0.484279636E-2,0.905265007E-2,-0.155078918E-1,0.451986901E-1,0.177215263E-1,-0.427253954E-1,-0.147788646E-2,0.284164492E-2,-0.444576815E-1,0.405439064E-1,0.483798496E-1,0.227898471E-1,0.862613134E-2,-0.424738713E-1,0.109758554E-2,0.982827414E-2,0.334621407E-1,-0.227406733E-1,-0.405445881E-1,0.134714311E-1,-0.391454101E-1,0.295006577E-1,0.380481817E-1,-0.108530028E-1,0.389656425E-1,-0.384758459E-2,1.00943804,0.349776098E-2,0.748155359E-2],
                  "bias": 0.413822457E-1
              },
              {
                 "weights": [-0.336532965E-1,0.704867020E-2,-0.696552102E-3,-0.120927235E-1,-0.325793475E-1,-0.460362695E-1,0.479840450E-1,0.257169232E-1,-0.944551826E-2,0.364615209E-1,0.460578501E-1,-0.306080393E-1,0.169812161E-1,0.288487338E-1,-0.386268944E-1,-0.199765502E-2,0.317718573E-1,0.412677266E-1,0.432542190E-1,-0.121500343E-2,-0.520210434E-2,-0.112432928E-2,0.383887514E-1,0.275918655E-1,-0.456737056E-1,-0.421267524E-1,-0.489491709E-1,-0.590642495E-2,-0.269780532E-1,0.374223515E-1,0.982284069,-0.122249387E-1],
                  "bias": -0.234899893E-1
              },
              {
                 "weights": [0.490635075E-1,-0.438594222E-1,-0.173596863E-2,-0.463659130E-1,-0.265129060E-1,-0.592604280E-2,-0.168497837E-2,-0.454320014E-1,-0.120543204E-1,0.357902385E-1,-0.322752483E-1,0.373127349E-1,0.700444169E-2,0.106049990E-1,0.168314297E-1,-0.269448329E-1,-0.157077506E-2,0.259567914E-2,0.318604223E-1,-0.329425596E-1,-0.726083852E-2,-0.192760620E-1,0.384601415E-2,0.264286529E-1,-0.390397310E-1,0.386396684E-1,0.387004912E-1,0.775548536E-2,-0.315139778E-1,0.227996409E-1,-0.327467509E-1,1.03149664],
                  "bias": -0.301562753E-1
              }
          ],
          [
              {
                 "weights": [0.965935409,0.241643619E-1,-0.475538261E-1,-0.492064795E-2,-0.656753080E-2,-0.448525101E-1,-0.605845032E-2,0.307579320E-1,0.370937400E-1,0.702573743E-3,-0.539515093E-1,0.331396684E-1,0.187859461E-1,-0.408583395E-1,-0.589437783E-1,0.359371975E-1,0.196673404E-1,0.318695866E-1,0.814080611E-2,-0.344327651E-1,0.359916948E-1,0.484235771E-2,-0.207702052E-1,0.257109925E-1,-0.263913143E-1,0.108007081E-1,-0.324112549E-1,0.683962135E-2,-0.347408243E-1,0.274252854E-1,0.141033633E-1,-0.470865741E-1],
                  "bias": 0.198154207E-1
              },
              {
                 "weights": [-0.438719094E-1,0.985063016,0.439626314E-1,0.775134424E-2,0.227944274E-1,-0.277593583E-1,-0.129180355E-1,-0.792787690E-2,0.275304578E-1,0.172220655E-1,-0.234376714E-1,-0.355615444E-2,-0.485359831E-2,-0.369619159E-2,-0.339375697E-1,-0.486449748E-1,-0.619187113E-2,-0.976545643E-2,-0.487700701E-1,-0.418260470E-1,-0.118520558E-1,0.185713207E-2,-0.644513313E-2,0.760893291E-2,0.289355088E-1,0.225318931E-1,0.312158838E-2,0.423432589E-1,-0.340629779E-1,-0.125240814E-1,0.181470010E-1,-0.182828419E-1],
                  "bias": -0.130067924E-1
              },
              {
                 "weights": [-0.511191487E-1,0.227586762E-2,0.995589197,0.192322116E-1,0.329985730E-1,-0.389834680E-1,-0.836759806E-2,0.241255332E-1,0.303285066E-1,-0.251654126E-1,0.355884172E-1,-0.105973072E-1,-0.128127913E-4,-0.497679263E-1,0.216012374E-1,0.101148207E-1,-0.450234814E-2,-0.207250919E-1,0.155891683E-1,-0.388362221E-1,-0.394225344E-1,-0.485993251E-1,-0.697915815E-2,0.264829993E-1,-0.375321247E-1,0.147293434E-1,-0.403031036E-1,-0.494911224E-1,0.147535400E-1,0.297936592E-1,0.119744986E-2,0.183335773E-2],
                  "bias": -0.623550452E-1
              },
              {
                 "weights": [0.188253969E-1,-0.695878193E-1,-0.452892855E-1,0.949857771,-0.144287664E-1,-0.352102481E-1,-0.340904780E-1,-0.922018429E-3,-0.608177781E-1,-0.894382596E-2,-0.770761282E-3,-0.980771030E-3,-0.273680855E-1,-0.258395299E-1,-0.332623459E-1,-0.490646102E-1,-0.651819408E-1,-0.509346463E-1,-0.221000542E-2,-0.544536449E-1,-0.336123481E-1,-0.839644298E-2,-0.310658682E-1,-0.397430267E-2,-0.745711178E-1,-0.126852067E-1,-0.124536240E-1,-0.331112631E-1,0.220331997E-1,-0.675277114E-1,-0.347331092E-1,-0.162987076E-1],
                  "bias": -0.711792335E-1
              },
              {
                 "weights": [0.460370257E-1,0.227270443E-1,-0.789572112E-2,-0.172527565E-2,0.979487419,-0.544847874E-2,0.568841733E-1,-0.129947290E-1,-0.189213883E-1,0.541643053E-1,0.360907987E-1,-0.629100529E-2,0.158328786E-1,-0.140664456E-1,0.564911664E-1,0.539251156E-1,0.153255276E-1,0.580529682E-1,0.201812759E-1,0.145412621E-2,-0.321948854E-2,-0.282227136E-1,0.303470269E-1,0.427702218E-1,0.361361355E-2,0.229319800E-1,0.100623642E-2,0.394076109E-1,-0.354942121E-1,0.432184637E-1,0.114149787E-1,0.302665904E-1],
                  "bias": 0.468678661E-1
              },
              {
                 "weights": [0.297932290E-1,0.230303574E-1,-0.159861278E-1,-0.432297178E-1,0.616381690E-2,1.04027462,-0.447610095E-1,0.708820485E-2,-0.354001261E-1,0.304966513E-1,0.241904892E-1,0.543116312E-2,-0.301861260E-1,-0.241366122E-1,-0.105393119E-1,-0.270910710E-1,0.301629566E-1,-0.403218810E-2,0.336672254E-1,-0.163002219E-1,-0.327194035E-1,-0.119040217E-1,0.192342531E-1,0.973405130E-2,0.268026143E-1,-0.244861115E-1,0.153363645E-1,0.141842524E-1,-0.252968562E-2,0.468479991E-1,0.288509335E-1,0.476246402E-1],
                  "bias": 0.303389803E-1
              },
              {
                 "weights": [-0.782145467E-2,-0.468421131E-1,0.447284058E-2,0.184513424E-1,-0.250230711E-1,0.430211285E-2,1.01968622,0.212485008E-1,0.370905884E-1,-0.938526646E-3,-0.236437824E-1,-0.260876194E-1,0.303809550E-1,-0.352266207E-1,-0.353238620E-1,0.351839438E-1,-0.307585318E-1,0.985291414E-2,-0.177910663E-1,-0.411832258E-1,-0.225084405E-1,-0.455245636E-1,-0.341393426E-1,-0.370879918E-1,-0.318060517E-1,-0.105946073E-1,-0.245096106E-1,-0.335568525E-1,-0.188175645E-1,-0.386983342E-1,-0.446928293E-1,-0.461992435E-1],
                  "bias": 0.216122344E-1
              },
              {
                 "weights": [-0.341029987E-1,-0.181807466E-1,-0.121639371E-1,-0.562400557E-2,0.195542313E-1,0.130604766E-1,-0.373163782E-1,1.02537239,0.801434834E-2,-0.467825159E-1,-0.464319363E-1,0.126705160E-1,-0.111973993E-1,0.762561290E-2,0.340723693E-1,0.155641874E-1,-0.309539516E-2,0.287863240E-1,0.361071080E-1,-0.148801124E-1,-0.377665013E-1,0.788960420E-2,-0.425635166E-1,0.460932478E-1,-0.241442844E-1,-0.218869168E-1,-0.342417732E-1,0.218330277E-2,0.235785171E-1,0.438206345E-1,0.333340801E-1,0.202894881E-1],
                  "bias": -0.257663801E-1
              },
              {
                 "weights": [-0.312036648E-1,-0.393012203E-1,0.156650022E-1,0.635027513E-2,-0.429484770E-1,-0.347118340E-1,0.973303616E-2,0.283355708E-2,0.964580834,0.398568548E-1,-0.362443998E-1,0.388520919E-1,-0.683424855E-2,0.428113807E-2,0.249673966E-1,-0.479745790E-1,0.582013745E-2,-0.429007821E-1,0.326551870E-1,-0.390573479E-1,-0.100938166E-1,0.288118999E-1,-0.241890382E-1,0.427730605E-1,0.497793555E-1,-0.211326815E-1,0.421330594E-1,-0.498181283E-1,0.331040546E-1,0.278876107E-1,0.110589918E-1,-0.169542804E-1],
                  "bias": -0.277959947E-1
              },
              {
                 "weights": [0.131265549E-1,0.214118883E-1,-0.128704775E-1,-0.331268683E-1,-0.645765383E-2,-0.350205153E-1,0.710360706E-3,0.978595018E-2,-0.353342444E-1,0.999580503,-0.353126265E-1,0.331823863E-1,0.333910473E-1,0.341775790E-1,0.417853631E-1,0.180792846E-1,0.172006339E-1,0.417171530E-1,-0.294424463E-1,0.470081344E-1,-0.189946108E-1,0.285871886E-1,-0.258145593E-1,0.224518664E-1,-0.158227328E-1,0.353739522E-1,0.263114143E-1,-0.329632708E-2,-0.189214647E-1,0.223602038E-1,0.349305905E-1,0.122602293E-1],
                  "bias": 0.137915807E-1
              },
              {
                 "weights": [-0.221426729E-1,0.354352109E-1,0.273126876E-3,0.464710481E-1,0.215190239E-1,0.554507924E-2,0.448403545E-1,-0.455661863E-1,0.117777782E-1,0.509568164E-2,1.03285503,-0.765479030E-2,-0.386161506E-1,0.501082465E-1,0.186112411E-1,0.325719491E-1,0.512704626E-1,-0.463288873E-1,0.240223277E-1,-0.366708785E-1,0.501487404E-1,0.321447477E-1,-0.230115168E-1,-0.260697734E-1,-0.232341718E-1,-0.319309421E-1,0.102511710E-1,-0.133245671E-1,-0.947270729E-2,-0.389085412E-1,-0.630925968E-2,0.312961526E-1],
                  "bias": 0.811638031E-2
              },
              {
                 "weights": [-0.453587547E-1,-0.255113989E-1,0.201482140E-1,0.276931971E-1,-0.430876529E-2,-0.313679427E-1,0.228728028E-2,-0.266804155E-1,-0.352773704E-1,0.201974586E-1,0.248676613E-1,0.987394452,-0.123976180E-1,-0.245356206E-1,-0.235668719E-1,-0.246380945E-2,0.373717956E-1,0.142089492E-1,-0.454652570E-1,-0.403251648E-1,-0.171735499E-2,-0.815575570E-2,-0.427154750E-1,0.471830331E-1,-0.457829759E-1,0.335276127E-1,0.436980091E-1,-0.236392450E-1,0.459427126E-1,-0.221578553E-1,-0.619700970E-2,0.470453985E-1],
                  "bias": -0.373202972E-1
              },
              {
                 "weights": [-0.339037850E-1,0.293939300E-1,-0.132102892E-1,0.285782907E-1,0.187152885E-1,-0.433838069E-1,-0.392115116E-1,-0.329593047E-1,-0.115418741E-1,-0.266223233E-1,-0.318389870E-1,0.256674178E-2,1.00024641,0.931327511E-2,-0.301940534E-1,0.475006849E-1,0.348503143E-1,0.507408716E-1,-0.135274348E-2,0.227461867E-1,-0.272805672E-1,0.312721618E-1,0.380895175E-1,-0.425335951E-1,0.485883206E-1,-0.281394292E-1,0.497382646E-2,0.897667278E-2,0.391040519E-1,-0.244771186E-1,-0.158716533E-1,0.446534939E-1],
                  "bias": 0.410535932E-1
              },
              {
                 "weights": [-0.483514145E-1,-0.341455340E-1,-0.231848210E-1,-0.180279650E-1,-0.465673991E-1,-0.288899355E-1,-0.206884909E-1,0.342451520E-1,0.320889219E-2,0.370235965E-1,0.338898189E-1,0.498977751E-1,-0.466437899E-1,1.04178333,0.431048172E-2,-0.340862162E-1,0.457448512E-1,0.125409765E-1,0.429195128E-1,0.356907956E-1,-0.474205092E-1,-0.239394587E-1,-0.499803945E-2,0.295509882E-1,0.144883078E-1,-0.474110320E-1,0.123056499E-1,0.400275066E-1,0.260759350E-1,-0.407638252E-1,0.483435392E-1,0.362924375E-1],
                  "bias": 0.201926474E-1
              },
              {
                 "weights": [0.494161360E-1,0.189558938E-1,0.255925599E-1,-0.414010733E-1,-0.115800016E-1,-0.303400178E-1,-0.335925986E-3,0.314486101E-1,0.366593935E-1,0.130053423E-1,0.126431044E-1,-0.352528840E-1,-0.280161854E-1,-0.375001281E-1,1.04601026,-0.282452032E-1,-0.569784129E-2,-0.653096358E-3,0.299209226E-1,-0.624601450E-2,0.221684063E-2,0.258395728E-1,0.120228576E-1,0.267940890E-1,0.143700456E-1,-0.300717205E-1,0.296425633E-1,0.396776833E-1,-0.483675189E-1,0.373858884E-1,0.314070508E-1,-0.150234504E-1],
                  "bias": -0.167733599E-1
              },
              {
                 "weights": [0.232878141E-1,-0.433629416E-1,-0.374443941E-1,0.350202695E-1,0.340833291E-1,-0.256191380E-1,0.258434452E-1,0.269433688E-1,0.264220382E-2,0.145862484E-1,0.466785254E-2,0.144162774E-1,-0.403822511E-1,0.111559685E-1,0.126459310E-1,1.00193679,0.439754641E-2,0.241673663E-1,0.468035527E-1,0.252586957E-1,-0.376787372E-1,0.297763180E-1,-0.192138404E-1,0.412213728E-1,-0.245220419E-1,0.397128761E-1,-0.386809674E-2,0.272197537E-1,-0.471216217E-1,0.323403291E-1,0.411237702E-1,-0.831383653E-2],
                  "bias": -0.191629753E-1
              },
              {
                 "weights": [-0.352249779E-1,-0.260415468E-1,0.217366870E-1,0.358944871E-1,-0.184773244E-1,-0.121057285E-1,-0.436380953E-1,-0.114269117E-1,-0.106093399E-1,0.258378480E-1,-0.469848104E-1,0.383225121E-1,0.591751840E-2,0.297510158E-1,-0.220090728E-1,-0.147122983E-1,1.02293968,0.478752628E-1,0.396403819E-1,-0.201032050E-1,-0.331888460E-1,0.422288850E-1,-0.305069257E-1,0.712063629E-4,0.430500880E-1,0.155162357E-2,0.455232561E-1,0.348985344E-1,0.327650420E-1,-0.319143408E-2,-0.783199817E-2,-0.353696346E-1],
                  "bias": -0.612219376E-2
              },
              {
                 "weights": [0.155811831E-1,-0.255591404E-1,-0.433052182E-1,-0.365607217E-1,0.135438060E-1,0.137654208E-1,-0.244424567E-1,-0.282341931E-1,0.360142067E-1,-0.292121358E-1,0.217780601E-1,0.835119095E-2,-0.187060609E-1,0.138055449E-1,-0.109666968E-1,0.310699120E-1,0.318800285E-1,0.982959747,-0.381701998E-1,-0.231925417E-1,0.438331924E-1,0.257187989E-1,-0.249134041E-1,0.155715495E-1,-0.232681446E-1,0.185089302E-3,-0.851975381E-2,0.509845465E-1,0.587100768E-2,0.142367259E-1,0.139698982E-1,-0.364938416E-1],
                  "bias": 0.445555337E-1
              },
              {
                 "weights": [-0.786985178E-2,0.926934090E-2,0.214769486E-1,0.490727015E-1,-0.363691561E-1,0.912410859E-2,0.210958440E-1,-0.346623510E-1,0.260681659E-1,-0.698281173E-2,-0.173396617E-1,-0.408222387E-2,0.146020930E-1,0.276949890E-1,0.226799715E-1,0.110372594E-1,0.391480699E-1,0.460557640E-1,1.01783514,-0.153342690E-1,-0.354531258E-1,-0.430294536E-1,-0.213532038E-1,-0.308948085E-1,0.645420933E-2,0.399176739E-1,-0.196235683E-1,-0.117425213E-2,-0.128651559E-1,0.324348435E-1,0.348123163E-1,0.342075154E-1],
                  "bias": -0.166993085E-1
              },
              {
                 "weights": [0.526682809E-1,-0.425110348E-1,-0.354485251E-1,0.255923048E-1,-0.116533916E-1,-0.445820764E-1,-0.236989819E-1,-0.330346338E-1,0.422512442E-1,0.144744990E-1,-0.363073833E-1,0.960718282E-2,0.109978570E-1,0.195252001E-1,0.338251255E-1,0.455331020E-1,0.167043377E-1,-0.224964060E-1,-0.189721584E-1,0.980090976,-0.306250388E-2,-0.370636955E-1,-0.157087483E-1,0.281615313E-1,0.451895818E-1,-0.346796364E-1,-0.397072956E-1,0.350204669E-1,0.256510451E-1,0.508718751E-1,-0.229937863E-1,-0.293493401E-1],
                  "bias": 0.530209541E-1
              },
              {
                 "weights": [-0.109313857E-1,0.458974726E-1,0.331467763E-1,0.118775368E-1,-0.406935588E-1,-0.490648933E-1,-0.163777657E-1,-0.412037522E-1,0.884860696E-3,-0.423431918E-1,-0.345218331E-1,0.319077075E-1,0.185252801E-1,0.159900021E-1,-0.120006157E-1,-0.490986519E-1,0.497281104E-1,-0.428660549E-1,0.396419317E-1,0.436298959E-1,1.04170763,0.376409553E-1,-0.767232559E-3,-0.119340178E-1,0.912152347E-3,0.362616219E-1,0.447355472E-1,0.416786373E-1,-0.204617064E-1,-0.216090195E-1,0.191201512E-1,0.159084406E-1],
                  "bias": 0.264933370E-1
              },
              {
                 "weights": [0.316493064E-1,-0.196071398E-1,0.493852682E-1,0.412127972E-1,-0.320426524E-1,0.362533778E-1,0.200464204E-1,-0.375639834E-1,-0.326107964E-1,-0.345095098E-1,0.352365784E-1,-0.413883105E-1,0.147399306E-1,-0.429666191E-1,0.250735432E-1,-0.350184808E-2,0.174495690E-1,-0.147412820E-1,-0.232243408E-1,-0.159688927E-1,-0.447261147E-2,1.02712905,-0.210726187E-1,0.509557091E-1,-0.174099021E-1,0.444030352E-1,0.457756706E-1,0.964034721E-2,-0.440923683E-1,-0.321747772E-1,-0.163704641E-1,0.129539985E-1],
                  "bias": -0.257495400E-1
              },
              {
                 "weights": [0.148244789E-1,0.505668782E-1,0.153674474E-1,0.119778039E-1,-0.969294459E-2,0.304271616E-1,-0.304575581E-1,0.456972159E-1,0.201553050E-1,-0.413230360E-1,0.302637722E-1,0.413039550E-1,0.185745265E-1,0.308056548E-1,0.117156294E-2,-0.419302545E-1,0.242718030E-1,0.505064167E-1,0.284656230E-1,-0.175209716E-1,0.443311781E-1,0.135902949E-1,1.01594245,-0.302463435E-1,-0.227369033E-1,-0.311466679E-1,0.317150429E-1,-0.342737027E-1,0.142344069E-1,0.298810806E-1,-0.299779493E-1,-0.153403170E-1],
                  "bias": 0.433660597E-1
              },
              {
                 "weights": [-0.790571887E-2,0.459527075E-1,-0.455576628E-1,0.464107767E-1,-0.305901002E-1,0.244517904E-1,0.495431386E-1,0.266145021E-1,-0.204222351E-1,-0.136873526E-1,0.351998098E-1,-0.194165893E-1,0.147735234E-1,-0.394741297E-1,0.261218268E-1,-0.270407163E-1,0.353119187E-1,0.389201082E-1,-0.296861306E-1,0.169032570E-1,0.313961618E-1,0.432938375E-1,-0.441412150E-3,1.00615108,0.294915866E-1,0.192604363E-1,0.470928289E-1,-0.148787033E-1,0.433918945E-1,0.237423591E-1,0.324363098E-2,0.117524166E-2],
                  "bias": 0.282255094E-1
              },
              {
                 "weights": [0.322640538E-1,-0.322642475E-1,0.544611178E-2,0.509296581E-1,-0.437548235E-1,0.454534665E-1,-0.467472784E-1,-0.438702926E-1,-0.139602162E-1,0.474181473E-1,-0.700902892E-3,-0.130564580E-1,-0.277937036E-1,0.344347991E-1,0.323660336E-1,-0.472586416E-1,0.322388560E-1,-0.325523540E-1,-0.370883644E-1,0.491190925E-1,0.176280439E-1,0.466023162E-1,-0.447393358E-1,0.479222126E-1,0.977636755,0.250540040E-1,0.373778045E-1,-0.417044014E-1,-0.668842904E-2,-0.279842205E-1,0.137027353E-1,-0.136730131E-1],
                  "bias": -0.131695643E-1
              },
              {
                 "weights": [0.495840907E-1,-0.249840319E-1,-0.133396275E-1,0.433625244E-1,0.155103849E-1,-0.378416316E-2,0.639220700E-2,-0.428703204E-1,0.376217440E-1,-0.365039371E-1,-0.950016081E-2,0.138844019E-1,-0.248558428E-1,-0.200054534E-1,0.423944034E-1,-0.466238335E-1,0.136372615E-1,-0.434876271E-1,-0.288892854E-1,-0.306163356E-1,0.420453623E-1,0.193496663E-1,-0.317690261E-1,0.144104026E-1,-0.449796170E-1,0.966060996,0.465866737E-1,-0.397951603E-1,0.105785914E-1,0.880245876E-3,0.372128673E-1,-0.482676402E-1],
                  "bias": -0.322090685E-1
              },
              {
                 "weights": [0.216842387E-1,-0.372815840E-1,0.466598198E-1,-0.301831830E-1,0.661966391E-3,-0.356316753E-1,-0.381766520E-1,-0.141289888E-2,-0.376249813E-1,-0.220812932E-1,0.436716005E-1,-0.189974401E-1,0.158872493E-1,-0.136203058E-1,-0.482188016E-1,0.217518248E-1,0.288656745E-1,0.432716087E-1,0.390465893E-1,-0.213181437E-2,-0.460836366E-1,-0.249623903E-2,0.311316233E-1,-0.472625010E-1,0.243370738E-1,-0.475572534E-1,1.00939226,0.339718871E-1,-0.211264603E-1,-0.260244086E-1,0.441458356E-2,0.395109039E-2],
                  "bias": -0.277589783E-1
              },
              {
                 "weights": [-0.416135602E-1,-0.134481238E-1,0.523356721E-3,-0.396966934E-1,-0.224213838E-2,-0.205843057E-1,-0.192504656E-1,-0.195488762E-1,-0.291205179E-1,0.388501883E-1,0.184237637E-3,0.464365371E-1,0.321882479E-1,0.127074970E-1,0.401525237E-1,-0.301367417E-2,0.363090932E-1,0.478881784E-2,-0.101952371E-2,0.385585502E-1,0.319548845E-1,0.785168447E-2,-0.271247737E-1,-0.135350768E-1,0.622105692E-2,-0.263059027E-1,0.443885885E-1,0.968468606,0.336426236E-1,0.519654760E-2,0.150030283E-1,-0.223339535E-1],
                  "bias": 0.540889204E-1
              },
              {
                 "weights": [-0.209398381E-1,-0.390966684E-1,-0.154810492E-3,-0.633354997E-2,0.292300954E-1,-0.128772277E-1,-0.183098041E-2,-0.470826495E-2,-0.284153651E-1,0.385568850E-1,0.312276874E-1,-0.112720262E-1,-0.135964360E-1,-0.169642717E-1,-0.283954591E-1,0.157496780E-1,0.391474813E-1,0.462368205E-1,0.416169278E-1,0.237872824E-1,-0.130696266E-3,0.309847370E-1,0.109017724E-1,0.245683789E-1,0.479031950E-1,0.219383463E-1,-0.248357598E-1,-0.408426374E-1,0.961008608,-0.227420330E-1,-0.355817154E-1,-0.287519787E-1],
                  "bias": 0.480466112E-1
              },
              {
                 "weights": [0.153142959E-1,0.407435186E-2,0.657170778E-2,-0.380798467E-1,0.113994232E-2,-0.183070321E-1,0.436637597E-2,-0.112752495E-1,0.440396890E-1,0.426794961E-1,0.827762485E-2,0.870421063E-2,0.586995622E-2,0.306487363E-1,0.445988178E-1,-0.431651622E-1,0.429496467E-1,0.155702401E-1,0.475935191E-1,-0.279744174E-1,0.374950143E-2,-0.307210162E-1,-0.226149075E-1,0.554456376E-2,-0.491333427E-2,-0.414831378E-1,0.150712216E-1,-0.174602084E-1,-0.186372232E-1,1.04516077,0.417264774E-1,0.194975995E-1],
                  "bias": 0.104545727E-1
              },
              {
                 "weights": [0.271783080E-1,-0.314936303E-1,-0.472051231E-2,-0.951752532E-2,0.129023712E-3,-0.226644110E-1,0.224803016E-2,0.231864713E-1,0.201142952E-1,0.141795995E-1,0.554435467E-2,0.144474732E-2,-0.223354660E-1,-0.172462538E-1,0.354371704E-1,0.567128742E-2,-0.490029762E-2,-0.120711774E-1,0.231622923E-1,0.358282998E-1,0.941378251E-2,-0.353122205E-1,-0.128830345E-1,-0.750354119E-2,-0.360377356E-1,0.237975139E-1,-0.195836890E-1,-0.389299169E-1,0.476961322E-1,-0.592911337E-2,1.00271678,0.110897399E-2],
                  "bias": 0.348171405E-1
              },
              {
                 "weights": [0.500781015E-1,-0.313673280E-1,0.161397979E-1,-0.478569008E-1,0.537712825E-2,-0.427334085E-1,0.397372544E-1,-0.424564108E-1,0.162203740E-1,0.366289616E-1,-0.459477007E-1,0.402121991E-1,0.178711507E-1,-0.488571972E-1,-0.449775904E-1,0.224480918E-2,-0.448636264E-1,0.576164387E-2,-0.385954604E-1,-0.263891481E-1,-0.206144974E-1,-0.213421453E-1,-0.326199345E-1,0.216341182E-2,-0.348396748E-1,-0.323339142E-1,0.337971263E-1,0.303235613E-1,-0.126585867E-1,-0.219334979E-1,0.121801738E-1,0.976006210],
                  "bias": -0.102269137E-1
              }
          ]
      ],
      "output_layer": [
              {
                 "weights": [0.994278848,-0.412899107E-1,-0.325497240E-1,-0.294082500E-1,-0.942310691E-1,-0.408276357E-1,-0.496324934E-1,-0.875885785E-1,-0.808174722E-2,-0.410563545E-2,-0.599073395E-1,-0.309913028E-1,-0.105724456E-1,-0.392246991E-1,-0.366952531E-1,-0.934867337E-1,-0.408488978E-2,-0.400627172E-2,-0.228857249E-2,-0.772755668E-1,-0.374103077E-1,-0.822787955E-1,-0.321434960E-1,-0.349099860E-1,-0.620834082E-1,-0.660194159E-1,-0.330951326E-1,-0.683144033E-1,-0.454354286E-1,-0.605924316E-1,-0.446439236E-1,-0.417604819E-1],
                  "bias": -0.551281199E-1
              },
              {
                 "weights": [-0.307573529E-3,0.995808363,-0.284242462E-1,-0.132990796E-1,-0.458412878E-1,0.125366813E-1,0.267583132E-1,-0.142942732E-1,0.314991958E-1,-0.459265336E-1,-0.474149041E-3,-0.340074785E-1,-0.462642200E-1,-0.488851080E-2,0.386296399E-1,0.127472412E-1,-0.392877869E-1,-0.510628000E-1,0.253413171E-1,0.761212595E-2,-0.572206154E-1,-0.506564751E-1,-0.544335283E-1,-0.363606848E-1,-0.267453343E-1,-0.319151133E-1,-0.238919109E-1,-0.389005020E-1,-0.529811978E-1,-0.338541083E-1,-0.210131165E-1,0.382079072E-1],
                  "bias": 0.751054671E-3
              },
              {
                 "weights": [-0.273257997E-1,-0.246603787E-1,0.910282135,-0.204281583E-1,-0.848633349E-1,-0.605165362E-1,-0.489983670E-1,-0.316296294E-1,-0.231516454E-1,-0.408453941E-1,-0.128030591E-1,-0.544161871E-1,-0.102361059E-1,-0.641016960E-1,-0.474424213E-1,-0.779005215E-1,0.685081701E-3,-0.436707549E-1,-0.945450664E-1,-0.869620964E-1,-0.372959226E-1,-0.745261982E-1,-0.410443023E-1,-0.700098723E-1,-0.379605107E-1,-0.213651173E-1,-0.486569889E-1,-0.716799125E-1,-0.489154235E-1,-0.813076273E-3,-0.814635828E-1,-0.758844241E-1],
                  "bias": -0.261944812E-1
              },
              {
                 "weights": [-0.938898623E-1,-0.742569268E-1,-0.930429101E-1,0.898131907,-0.101276450,-0.161872461,-0.112828001,-0.150395706,-0.622556433E-1,-0.824813768E-1,-0.163735420,-0.921939984E-1,-0.113594040,-0.936268717E-1,-0.117739268,-0.103711739,-0.871687233E-1,-0.960718915E-1,-0.113544472,-0.132076561,-0.855599195E-1,-0.716180503E-1,-0.123751529,-0.983321518E-1,-0.146692142,-0.733347312E-1,-0.104269274,-0.163081124,-0.139290765,-0.880456939E-1,-0.747728422E-1,-0.794607326E-1],
                  "bias": -0.174640864
              },
              {
                 "weights": [0.623632781E-1,0.668593794E-1,0.566518232E-1,0.164847728E-1,1.02800202,0.954179913E-1,0.197096970E-1,0.549600013E-1,0.589800477E-1,0.993641093E-1,0.116057776,0.612645298E-1,0.107439488,0.707270503E-1,0.445727296E-1,0.351593718E-1,0.182547458E-1,0.825357512E-1,0.299151614E-1,0.925304070E-1,0.350333378E-1,0.612525307E-1,0.102330767,0.491766334E-1,0.288302004E-1,0.777245685E-1,0.441045389E-1,0.114824213,0.645819381E-1,0.851315409E-1,0.408722535E-1,0.210316703E-1],
                  "bias": 0.787185580E-1
              }
      ]
 }
